digraph Tree {
node [shape=box, style="filled, rounded", color="black", fontname="helvetica"] ;
edge [fontname="helvetica"] ;
0 [label="Unnamed: 0 <= 12243.5\ngini = 0.765\nsamples = 14661\nvalue = [1672, 2347, 25, 27, 3826, 1679, 4966, 119]\nclass = Poor", fillcolor="#fbeafc"] ;
1 [label="Unnamed: 0 <= 6606.5\ngini = 0.695\nsamples = 10835\nvalue = [1672, 2347, 25, 27, 0, 1679, 4966, 119]\nclass = Poor", fillcolor="#f3c2f7"] ;
0 -> 1 [labeldistance=2.5, labelangle=45, headlabel="True"] ;
2 [label="Unnamed: 0 <= 3947.0\ngini = 0.677\nsamples = 5869\nvalue = [1672, 2347, 25, 27, 0, 1679, 0, 119]\nclass = Average", fillcolor="#f6fbdf"] ;
1 -> 2 ;
3 [label="Unnamed: 0 <= 2053.0\ngini = 0.546\nsamples = 3522\nvalue = [1672, 0, 25, 27, 0, 1679, 0, 119]\nclass = Good", fillcolor="#fefeff"] ;
2 -> 3 ;
4 [label="Unnamed: 0 <= 204.5\ngini = 0.172\nsamples = 1850\nvalue = [0, 0, 25, 27, 0, 1679, 0, 119]\nclass = Good", fillcolor="#674de8"] ;
3 -> 4 ;
5 [label="Unnamed: 0 <= 61.0\ngini = 0.469\nsamples = 171\nvalue = [0, 0, 25, 27, 0, 0, 0, 119]\nclass = Very Good", fillcolor="#ee80a5"] ;
4 -> 5 ;
6 [label="Unnamed: 0 <= 27.5\ngini = 0.499\nsamples = 52\nvalue = [0, 0, 25, 27, 0, 0, 0, 0]\nclass = Excellent", fillcolor="#f0fdf9"] ;
5 -> 6 ;
7 [label="gini = 0.0\nsamples = 25\nvalue = [0, 0, 25, 0, 0, 0, 0, 0]\nclass = Bestseller", fillcolor="#47e539"] ;
6 -> 7 ;
8 [label="gini = 0.0\nsamples = 27\nvalue = [0, 0, 0, 27, 0, 0, 0, 0]\nclass = Excellent", fillcolor="#39e5ac"] ;
6 -> 8 ;
9 [label="gini = 0.0\nsamples = 119\nvalue = [0, 0, 0, 0, 0, 0, 0, 119]\nclass = Very Good", fillcolor="#e53972"] ;
5 -> 9 ;
10 [label="gini = 0.0\nsamples = 1679\nvalue = [0, 0, 0, 0, 0, 1679, 0, 0]\nclass = Good", fillcolor="#5639e5"] ;
4 -> 10 ;
11 [label="gini = 0.0\nsamples = 1672\nvalue = [1672, 0, 0, 0, 0, 0, 0, 0]\nclass = Acceptable", fillcolor="#e58139"] ;
3 -> 11 ;
12 [label="gini = 0.0\nsamples = 2347\nvalue = [0, 2347, 0, 0, 0, 0, 0, 0]\nclass = Average", fillcolor="#c8e539"] ;
2 -> 12 ;
13 [label="gini = 0.0\nsamples = 4966\nvalue = [0, 0, 0, 0, 0, 0, 4966, 0]\nclass = Poor", fillcolor="#d739e5"] ;
1 -> 13 ;
14 [label="gini = 0.0\nsamples = 3826\nvalue = [0, 0, 0, 0, 3826, 0, 0, 0]\nclass = Extremely Poor", fillcolor="#399de5"] ;
0 -> 14 [labeldistance=2.5, labelangle=-45, headlabel="False"] ;
}