digraph Tree {
node [shape=box, style="filled, rounded", color="black", fontname="helvetica"] ;
edge [fontname="helvetica"] ;
0 [label="Unnamed: 0 <= 12243.5\ngini = 0.766\nsamples = 14661\nvalue = [1677, 2354, 25, 30, 3866, 1650, 4932, 127]\nclass = Poor", fillcolor="#fbebfc"] ;
1 [label="Unnamed: 0 <= 6606.5\ngini = 0.696\nsamples = 10795\nvalue = [1677, 2354, 25, 30, 0, 1650, 4932, 127]\nclass = Poor", fillcolor="#f3c3f7"] ;
0 -> 1 [labeldistance=2.5, labelangle=45, headlabel="True"] ;
2 [label="Unnamed: 0 <= 3946.5\ngini = 0.677\nsamples = 5863\nvalue = [1677, 2354, 25, 30, 0, 1650, 0, 127]\nclass = Average", fillcolor="#f6fbdf"] ;
1 -> 2 ;
3 [label="Unnamed: 0 <= 2053.5\ngini = 0.549\nsamples = 3509\nvalue = [1677, 0, 25, 30, 0, 1650, 0, 127]\nclass = Acceptable", fillcolor="#fffdfc"] ;
2 -> 3 ;
4 [label="Unnamed: 0 <= 204.5\ngini = 0.184\nsamples = 1832\nvalue = [0, 0, 25, 30, 0, 1650, 0, 127]\nclass = Good", fillcolor="#684ee8"] ;
3 -> 4 ;
5 [label="Unnamed: 0 <= 61.5\ngini = 0.467\nsamples = 182\nvalue = [0, 0, 25, 30, 0, 0, 0, 127]\nclass = Very Good", fillcolor="#ee81a5"] ;
4 -> 5 ;
6 [label="Unnamed: 0 <= 27.5\ngini = 0.496\nsamples = 55\nvalue = [0, 0, 25, 30, 0, 0, 0, 0]\nclass = Excellent", fillcolor="#defbf1"] ;
5 -> 6 ;
7 [label="gini = 0.0\nsamples = 25\nvalue = [0, 0, 25, 0, 0, 0, 0, 0]\nclass = Bestseller", fillcolor="#47e539"] ;
6 -> 7 ;
8 [label="gini = 0.0\nsamples = 30\nvalue = [0, 0, 0, 30, 0, 0, 0, 0]\nclass = Excellent", fillcolor="#39e5ac"] ;
6 -> 8 ;
9 [label="gini = 0.0\nsamples = 127\nvalue = [0, 0, 0, 0, 0, 0, 0, 127]\nclass = Very Good", fillcolor="#e53972"] ;
5 -> 9 ;
10 [label="gini = 0.0\nsamples = 1650\nvalue = [0, 0, 0, 0, 0, 1650, 0, 0]\nclass = Good", fillcolor="#5639e5"] ;
4 -> 10 ;
11 [label="gini = 0.0\nsamples = 1677\nvalue = [1677, 0, 0, 0, 0, 0, 0, 0]\nclass = Acceptable", fillcolor="#e58139"] ;
3 -> 11 ;
12 [label="gini = 0.0\nsamples = 2354\nvalue = [0, 2354, 0, 0, 0, 0, 0, 0]\nclass = Average", fillcolor="#c8e539"] ;
2 -> 12 ;
13 [label="gini = 0.0\nsamples = 4932\nvalue = [0, 0, 0, 0, 0, 0, 4932, 0]\nclass = Poor", fillcolor="#d739e5"] ;
1 -> 13 ;
14 [label="gini = 0.0\nsamples = 3866\nvalue = [0, 0, 0, 0, 3866, 0, 0, 0]\nclass = Extremely Poor", fillcolor="#399de5"] ;
0 -> 14 [labeldistance=2.5, labelangle=-45, headlabel="False"] ;
}